<?xml version="1.0"?>
<opencv_storage>
<stage14>
  <maxWeakCount>9</maxWeakCount>
  <stageThreshold>-5.3190112113952637e-01</stageThreshold>
  <weakClassifiers>
    <_>
      <internalNodes>
        0 -1 38460 7.6305740512907505e-03</internalNodes>
      <leafValues>
        5.6645417213439941e-01 -3.8577911257743835e-01</leafValues></_>
    <_>
      <internalNodes>
        0 -1 37833 7.6685184612870216e-03</internalNodes>
      <leafValues>
        -4.8087143898010254e-01 4.0113258361816406e-01</leafValues></_>
    <_>
      <internalNodes>
        0 -1 72936 -6.2902894569560885e-05</internalNodes>
      <leafValues>
        2.9927921295166016e-01 -6.0563361644744873e-01</leafValues></_>
    <_>
      <internalNodes>
        0 -1 38655 2.5343494489789009e-03</internalNodes>
      <leafValues>
        -8.5541284084320068e-01 1.7429096996784210e-01</leafValues></_>
    <_>
      <internalNodes>
        0 -1 32823 4.2346734553575516e-03</internalNodes>
      <leafValues>
        1.4423078298568726e-01 -7.9921102523803711e-01</leafValues></_>
    <_>
      <internalNodes>
        0 -1 67661 2.1736864000558853e-03</internalNodes>
      <leafValues>
        -5.7952630519866943e-01 2.3958815634250641e-01</leafValues></_>
    <_>
      <internalNodes>
        0 -1 33495 9.2390092322602868e-04</internalNodes>
      <leafValues>
        -5.9784775972366333e-01 2.6014226675033569e-01</leafValues></_>
    <_>
      <internalNodes>
        0 -1 39208 4.0618322789669037e-02</internalNodes>
      <leafValues>
        -2.3333311080932617e-01 8.5133653879165649e-01</leafValues></_>
    <_>
      <internalNodes>
        0 -1 49550 -8.4148086607456207e-03</internalNodes>
      <leafValues>
        4.7146347165107727e-01 -5.6183487176895142e-01</leafValues></_></weakClassifiers></stage14>
</opencv_storage>
